digraph Tree {
node [shape=box] ;
0 [label="IPK <= 2.435\ngini = 0.479\nsamples = 177\nvalue = [171, 113]\nclass = LULUS TEPAT"] ;
1 [label="IPS 5 <= 2.635\ngini = 0.442\nsamples = 65\nvalue = [33, 67]\nclass = LULUS TERLAMBAT"] ;
0 -> 1 [labeldistance=2.5, labelangle=45, headlabel="True"] ;
2 [label="IPS 1 <= 2.965\ngini = 0.386\nsamples = 56\nvalue = [23, 65]\nclass = LULUS TERLAMBAT"] ;
1 -> 2 ;
3 [label="IPS 5 <= 1.15\ngini = 0.329\nsamples = 48\nvalue = [16, 61]\nclass = LULUS TERLAMBAT"] ;
2 -> 3 ;
4 [label="gini = 0.0\nsamples = 1\nvalue = [2, 0]\nclass = LULUS TEPAT"] ;
3 -> 4 ;
5 [label="JENIS KELAMIN <= 0.5\ngini = 0.304\nsamples = 47\nvalue = [14, 61]\nclass = LULUS TERLAMBAT"] ;
3 -> 5 ;
6 [label="STATUS MAHASISWA <= 0.5\ngini = 0.375\nsamples = 30\nvalue = [12, 36]\nclass = LULUS TERLAMBAT"] ;
5 -> 6 ;
7 [label="gini = 0.0\nsamples = 17\nvalue = [0, 25]\nclass = LULUS TERLAMBAT"] ;
6 -> 7 ;
8 [label="IPS 3 <= 2.41\ngini = 0.499\nsamples = 13\nvalue = [12, 11]\nclass = LULUS TEPAT"] ;
6 -> 8 ;
9 [label="gini = 0.0\nsamples = 8\nvalue = [12, 0]\nclass = LULUS TEPAT"] ;
8 -> 9 ;
10 [label="gini = 0.0\nsamples = 5\nvalue = [0, 11]\nclass = LULUS TERLAMBAT"] ;
8 -> 10 ;
11 [label="IPS 5 <= 1.965\ngini = 0.137\nsamples = 17\nvalue = [2, 25]\nclass = LULUS TERLAMBAT"] ;
5 -> 11 ;
12 [label="IPS 7 <= 1.965\ngini = 0.32\nsamples = 6\nvalue = [2, 8]\nclass = LULUS TERLAMBAT"] ;
11 -> 12 ;
13 [label="IPK <= 1.94\ngini = 0.198\nsamples = 5\nvalue = [1, 8]\nclass = LULUS TERLAMBAT"] ;
12 -> 13 ;
14 [label="gini = 0.0\nsamples = 4\nvalue = [0, 8]\nclass = LULUS TERLAMBAT"] ;
13 -> 14 ;
15 [label="gini = 0.0\nsamples = 1\nvalue = [1, 0]\nclass = LULUS TEPAT"] ;
13 -> 15 ;
16 [label="gini = 0.0\nsamples = 1\nvalue = [1, 0]\nclass = LULUS TEPAT"] ;
12 -> 16 ;
17 [label="gini = 0.0\nsamples = 11\nvalue = [0, 17]\nclass = LULUS TERLAMBAT"] ;
11 -> 17 ;
18 [label="IPS 1 <= 3.0\ngini = 0.463\nsamples = 8\nvalue = [7, 4]\nclass = LULUS TEPAT"] ;
2 -> 18 ;
19 [label="gini = 0.0\nsamples = 3\nvalue = [6, 0]\nclass = LULUS TEPAT"] ;
18 -> 19 ;
20 [label="IPK <= 2.25\ngini = 0.32\nsamples = 5\nvalue = [1, 4]\nclass = LULUS TERLAMBAT"] ;
18 -> 20 ;
21 [label="IPS 5 <= 1.725\ngini = 0.5\nsamples = 2\nvalue = [1, 1]\nclass = LULUS TEPAT"] ;
20 -> 21 ;
22 [label="gini = 0.0\nsamples = 1\nvalue = [0, 1]\nclass = LULUS TERLAMBAT"] ;
21 -> 22 ;
23 [label="gini = 0.0\nsamples = 1\nvalue = [1, 0]\nclass = LULUS TEPAT"] ;
21 -> 23 ;
24 [label="gini = 0.0\nsamples = 3\nvalue = [0, 3]\nclass = LULUS TERLAMBAT"] ;
20 -> 24 ;
25 [label="STATUS MAHASISWA <= 0.5\ngini = 0.278\nsamples = 9\nvalue = [10, 2]\nclass = LULUS TEPAT"] ;
1 -> 25 ;
26 [label="gini = 0.0\nsamples = 2\nvalue = [0, 2]\nclass = LULUS TERLAMBAT"] ;
25 -> 26 ;
27 [label="gini = 0.0\nsamples = 7\nvalue = [10, 0]\nclass = LULUS TEPAT"] ;
25 -> 27 ;
28 [label="UMUR <= 24.5\ngini = 0.375\nsamples = 112\nvalue = [138, 46]\nclass = LULUS TEPAT"] ;
0 -> 28 [labeldistance=2.5, labelangle=-45, headlabel="False"] ;
29 [label="STATUS MAHASISWA <= 0.5\ngini = 0.114\nsamples = 58\nvalue = [93, 6]\nclass = LULUS TEPAT"] ;
28 -> 29 ;
30 [label="IPS 7 <= 2.84\ngini = 0.5\nsamples = 4\nvalue = [4, 4]\nclass = LULUS TEPAT"] ;
29 -> 30 ;
31 [label="gini = 0.0\nsamples = 2\nvalue = [0, 4]\nclass = LULUS TERLAMBAT"] ;
30 -> 31 ;
32 [label="gini = 0.0\nsamples = 2\nvalue = [4, 0]\nclass = LULUS TEPAT"] ;
30 -> 32 ;
33 [label="IPS 6 <= 3.215\ngini = 0.043\nsamples = 54\nvalue = [89, 2]\nclass = LULUS TEPAT"] ;
29 -> 33 ;
34 [label="gini = 0.0\nsamples = 26\nvalue = [46, 0]\nclass = LULUS TEPAT"] ;
33 -> 34 ;
35 [label="IPK <= 2.535\ngini = 0.085\nsamples = 28\nvalue = [43, 2]\nclass = LULUS TEPAT"] ;
33 -> 35 ;
36 [label="gini = 0.0\nsamples = 1\nvalue = [0, 1]\nclass = LULUS TERLAMBAT"] ;
35 -> 36 ;
37 [label="IPS 2 <= 2.64\ngini = 0.044\nsamples = 27\nvalue = [43, 1]\nclass = LULUS TEPAT"] ;
35 -> 37 ;
38 [label="gini = 0.0\nsamples = 1\nvalue = [0, 1]\nclass = LULUS TERLAMBAT"] ;
37 -> 38 ;
39 [label="gini = 0.0\nsamples = 26\nvalue = [43, 0]\nclass = LULUS TEPAT"] ;
37 -> 39 ;
40 [label="IPS 4 <= 3.375\ngini = 0.498\nsamples = 54\nvalue = [45, 40]\nclass = LULUS TEPAT"] ;
28 -> 40 ;
41 [label="STATUS MAHASISWA <= 0.5\ngini = 0.484\nsamples = 43\nvalue = [28, 40]\nclass = LULUS TERLAMBAT"] ;
40 -> 41 ;
42 [label="IPS 3 <= 2.785\ngini = 0.062\nsamples = 20\nvalue = [1, 30]\nclass = LULUS TERLAMBAT"] ;
41 -> 42 ;
43 [label="IPS 7 <= 3.685\ngini = 0.18\nsamples = 6\nvalue = [1, 9]\nclass = LULUS TERLAMBAT"] ;
42 -> 43 ;
44 [label="gini = 0.0\nsamples = 5\nvalue = [0, 9]\nclass = LULUS TERLAMBAT"] ;
43 -> 44 ;
45 [label="gini = 0.0\nsamples = 1\nvalue = [1, 0]\nclass = LULUS TEPAT"] ;
43 -> 45 ;
46 [label="gini = 0.0\nsamples = 14\nvalue = [0, 21]\nclass = LULUS TERLAMBAT"] ;
42 -> 46 ;
47 [label="IPS 2 <= 2.99\ngini = 0.394\nsamples = 23\nvalue = [27, 10]\nclass = LULUS TEPAT"] ;
41 -> 47 ;
48 [label="IPS 7 <= 3.1\ngini = 0.095\nsamples = 15\nvalue = [19, 1]\nclass = LULUS TEPAT"] ;
47 -> 48 ;
49 [label="gini = 0.0\nsamples = 12\nvalue = [16, 0]\nclass = LULUS TEPAT"] ;
48 -> 49 ;
50 [label="IPS 5 <= 2.555\ngini = 0.375\nsamples = 3\nvalue = [3, 1]\nclass = LULUS TEPAT"] ;
48 -> 50 ;
51 [label="gini = 0.0\nsamples = 1\nvalue = [0, 1]\nclass = LULUS TERLAMBAT"] ;
50 -> 51 ;
52 [label="gini = 0.0\nsamples = 2\nvalue = [3, 0]\nclass = LULUS TEPAT"] ;
50 -> 52 ;
53 [label="IPS 1 <= 2.93\ngini = 0.498\nsamples = 8\nvalue = [8, 9]\nclass = LULUS TERLAMBAT"] ;
47 -> 53 ;
54 [label="gini = 0.0\nsamples = 4\nvalue = [0, 9]\nclass = LULUS TERLAMBAT"] ;
53 -> 54 ;
55 [label="gini = 0.0\nsamples = 4\nvalue = [8, 0]\nclass = LULUS TEPAT"] ;
53 -> 55 ;
56 [label="gini = 0.0\nsamples = 11\nvalue = [17, 0]\nclass = LULUS TEPAT"] ;
40 -> 56 ;
}